{
    "linear_relu_stack.0.weight": [
        [
            -0.017022889107465744,
            -0.00863069761544466,
            -0.005502546671777964,
            0.028835898265242577,
            -0.02774958312511444,
            0.0204326119273901,
            0.015391851775348186,
            -0.011945395730435848,
            -0.04247717931866646,
            -0.039290837943553925,
            0.020328810438513756,
            -0.01322061475366354,
            0.008824652060866356,
            -0.02530660852789879,
            0.006396594922989607,
            -0.001002012868411839,
            -0.03898259252309799,
            0.006927952636033297,
            -0.007507994771003723,
            -0.02821497991681099,
            0.0027670986019074917,
            0.03841160982847214,
            -0.032946910709142685,
            -0.006853427737951279,
            0.014176559634506702,
            -0.03420848399400711,
            -0.01986697129905224,
            -0.01680588163435459,
            0.010590576566755772,
            -0.04148738086223602,
            0.02521386183798313,
            0.004236429464071989,
            -0.03824052959680557,
            0.03603830933570862,
            -0.03126487880945206,
            -0.013507867231965065,
            -0.014874452725052834,
            -0.029386142268776894,
            0.03916327282786369,
            -0.03170314058661461,
            -0.02902493253350258,
            -0.0023823408409953117,
            0.0373404286801815,
            0.03750579431653023,
            0.03813638165593147,
            0.033012330532073975,
            -0.011845845729112625,
            -0.022558409720659256,
            0.018614890053868294,
            0.03585878387093544,
            -0.013301152735948563,
            -0.01615133136510849,
            0.030916811898350716,
            -0.023942498490214348,
            0.013621299527585506,
            0.021312404423952103,
            -0.030637595802545547,
            0.0196452084928751,
            0.017333408817648888,
            -0.032316792756319046,
            0.02023984119296074,
            -0.03778775781393051,
            -0.03663978353142738,
            0.005712651181966066,
            -0.039095766842365265,
            -0.04068971797823906,
            -0.005401063710451126,
            0.041754432022571564,
            0.01967603713274002,
            0.04240788146853447,
            0.021701186895370483,
            0.015476956032216549,
            -0.008403661660850048,
            0.019392874091863632,
            -0.009542484767735004,
            -0.022091560065746307,
            0.016550777480006218,
            -0.0009616127354092896,
            -0.012343127280473709,
            -0.03976885601878166,
            0.01130696851760149,
            -0.01730751246213913,
            -0.02654234692454338,
            -0.009587678126990795,
            0.011419731192290783,
            -0.03813879191875458,
            0.016798976808786392,
            -0.00987248495221138,
            0.04089612886309624,
            -0.03605636581778526,
            -0.018699491396546364,
            0.02502558007836342,
            0.042068809270858765,
            -0.038355130702257156,
            -0.03777654096484184,
            -0.011773030273616314,
            -0.012473723851144314,
            -0.01045084185898304,
            -0.03634260967373848,
            0.005604713689535856,
            -0.008450747467577457,
            -0.04175160080194473,
            0.03394379839301109,
            0.002258832333609462,
            0.02405434660613537,
            0.005344657227396965,
            0.030490072444081306,
            0.03611299768090248,
            -0.00215679663233459,
            -0.039910830557346344,
            -0.015706032514572144,
            -0.0170616265386343,
            0.03270159661769867,
            -0.030376175418496132,
            0.01435189787298441,
            -0.019719937816262245,
            -0.006380308419466019,
            0.04185103252530098,
            -0.010380527935922146,
            -0.027918335050344467,
            -0.03121546469628811,
            0.006247854325920343,
            -0.01606309600174427,
            0.028826696798205376,
            0.03179199621081352,
            -0.023581385612487793,
            -0.011364435777068138,
            -0.024502767249941826,
            -0.005932000000029802,
            -0.004358836915344,
            0.03801194205880165,
            0.014199930243194103,
            -0.0295802541077137,
            0.01575593277812004,
            -0.016060367226600647,
            -0.02479880303144455,
            0.04073759913444519,
            0.041244987398386,
            -0.022262636572122574,
            -0.02454519458115101,
            -0.022950027137994766,
            -0.03894033282995224,
            -0.029601097106933594,
            0.03448779508471489,
            0.034580014646053314,
            -0.004821884911507368,
            0.027882045134902,
            0.0197316724807024,
            0.029108041897416115,
            -0.032451797276735306,
            0.014631337486207485,
            0.02769872546195984,
            -0.011695907451212406,
            -0.027578003704547882,
            -0.008526966907083988,
            -0.03832504153251648,
            -0.010579236783087254,
            0.007155891973525286,
            -0.020808862522244453,
            -0.03967214748263359,
            -0.0268124807626009,
            -0.03712809830904007,
            -0.01692921295762062,
            -0.02466183342039585,
            0.04103643447160721,
            -0.00043683606781996787,
            0.03660619258880615,
            0.02698131464421749,
            0.03486006706953049,
            0.02478233352303505,
            -0.009924152866005898,
            -0.0037472564727067947,
            0.025083443149924278,
            0.0006376655073836446,
            -0.011708906851708889,
            -0.03716276213526726,
            0.031276363879442215,
            -0.007359522394835949,
            -0.02931826375424862,
            -0.02888524904847145,
            -0.024367736652493477,
            -0.0026170536875724792,
            -0.02363721840083599,
            -0.014891044236719608,
            -0.021054139360785484,
            -0.0267214085906744,
            -0.008979689329862595,
            0.038845695555210114,
            -0.0026624042075127363,
            -0.030622465535998344,
            0.031098831444978714,
            -0.041528861969709396,
            0.01888851262629032,
            -0.004062177613377571,
            0.013499099761247635,
            0.03901965171098709,
            -0.03457791730761528,
            -0.01750563271343708,
            0.003875483525916934,
            -0.037498291581869125,
            -0.009671269915997982,
            -0.018541984260082245,
            0.0021668479312211275,
            -0.019135495647788048,
            0.005656833294779062,
            -0.03782128915190697,
            -0.006688511464744806,
            0.010733614675700665,
            -0.015451616607606411,
            -0.014942305162549019,
            -0.024798564612865448,
            0.03607165068387985,
            -0.04133225232362747,
            -0.024471288546919823,
            -0.0397314727306366,
            -0.021503131836652756,
            0.02504047192633152,
            0.011623259633779526,
            0.026841964572668076,
            -0.022933587431907654,
            0.011425266042351723,
            -0.03171490132808685,
            0.039774391800165176,
            0.03815019503235817,
            0.009163197129964828,
            0.029854532331228256,
            0.039793070405721664,
            -0.019227318465709686,
            0.02477332018315792,
            -0.005420192144811153,
            0.024216869845986366,
            0.02043650485575199,
            0.018896499648690224,
            0.023686759173870087,
            -0.009658402763307095,
            6.279946683207527e-05,
            -0.03589164465665817,
            0.005709561053663492,
            0.015556128695607185,
            -0.029987342655658722,
            -0.018424998968839645,
            -0.031693484634160995,
            -0.020176971331238747,
            -0.02161116525530815,
            0.015593077056109905,
            0.033974792808294296,
            -0.038378212600946426,
            0.011953605338931084,
            0.022920817136764526,
            0.030962688848376274,
            0.031066272407770157,
            -0.008687281981110573,
            -0.013758507557213306,
            0.02036312222480774,
            -0.011580700054764748,
            0.011450245045125484,
            0.025670034810900688,
            0.005250247661024332,
            0.04007141292095184,
            0.029865512624382973,
            -0.005803356878459454,
            -0.022140584886074066,
            0.003994598053395748,
            -0.04168108105659485,
            -0.022838756442070007,
            -0.03998290374875069,
            0.028544897213578224,
            -0.03261417895555496,
            -0.01718061976134777,
            -0.016356168314814568,
            -0.037323202937841415,
            0.02219473384320736,
            -0.04122664034366608,
            0.03846167400479317,
            -0.03753983974456787,
            0.038490764796733856,
            -0.026686150580644608,
            0.03640718385577202,
            -0.022150328382849693,
            0.022349383682012558,
            0.030889563262462616,
            0.027729324996471405,
            0.022958530113101006,
            0.03529577702283859,
            -0.006156814284622669,
            -0.04022069647908211,
            -0.031133219599723816,
            -0.0032459262292832136,
            0.01087133027613163,
            -0.0030199456959962845,
            -0.011631544679403305,
            0.03372552618384361,
            -0.023191330954432487,
            -0.007856214419007301,
            0.02591831423342228,
            0.04019702598452568,
            0.03206871822476387,
            0.0017742948839440942,
            -0.012495789676904678,
            -0.027282798662781715,
            0.029429210349917412,
            -0.020774628967046738,
            -0.034636273980140686,
            -0.026464249938726425,
            -0.01909423992037773,
            -0.0004975806223228574,
            -0.028063928708434105,
            0.03775566816329956,
            -0.02620929665863514,
            -0.024592477828264236,
            0.02821209654211998,
            -0.015144423581659794,
            0.03609994053840637,
            -0.036851994693279266,
            -0.022140787914395332,
            -0.021696381270885468,
            -0.010951959528028965,
            -0.02200929820537567,
            0.03646185249090195,
            -0.013938807882368565,
            -0.021123159676790237,
            -0.008758027106523514,
            -0.041568823158741,
            -0.023466121405363083,
            -0.036638595163822174,
            0.030490970239043236,
            -0.029397081583738327,
            0.04147056117653847,
            0.025997843593358994,
            -0.03597194328904152,
            0.008113927207887173,
            -0.037103891372680664,
            -0.03720703721046448,
            -0.0104734618216753,
            -0.030137574300169945,
            0.008270010352134705,
            0.001590728759765625,
            -0.023365115746855736,
            0.02523018978536129,
            0.006511960178613663,
            0.0218591820448637,
            -0.009573856368660927,
            0.021318472921848297,
            -0.03047097474336624,
            -0.031965602189302444,
            -0.04114151746034622,
            0.03526345640420914,
            -0.006140602752566338,
            0.025617433711886406,
            0.011446516029536724,
            -0.003353868145495653,
            -0.018895216286182404,
            -0.016666704788804054,
            -0.035639967769384384,
            -0.02328805811703205,
            -0.0075363521464169025,
            -0.02294980362057686,
            0.041290346533060074,
            -0.003558568889275193,
            -0.027330661192536354,
            -0.010857148095965385,
            -0.04173003509640694,
            -0.041959237307310104,
            0.011705674231052399,
            -0.034871164709329605,
            0.03150838986039162,
            -0.002773694694042206,
            -0.03146527707576752,
            0.03849403187632561,
            -0.03476822003722191,
            0.017759960144758224,
            -0.012109327130019665,
            0.005929554346948862,
            -0.02984808012843132,
            0.01646188646554947,
            -0.028536170721054077,
            -0.0038299558218568563,
            -0.003138527274131775,
            -0.02364211529493332,
            0.004759571980684996,
            -0.009700673632323742,
            0.013109014369547367,
            -0.015361839905381203,
            0.0009417991968803108,
            0.009092847816646099,
            -0.0017541077686473727,
            -0.013049107044935226,
            0.006410513073205948,
            -0.031421177089214325,
            0.03437664359807968,
            0.010670810006558895,
            0.006547563709318638,
            -0.04208353906869888,
            -0.005826757755130529,
            0.032801125198602676,
            0.0010632375488057733,
            -0.011586833745241165,
            -0.01353453565388918,
            -0.0346611812710762,
            -0.0035856228787451982,
            0.006645520217716694,
            -0.04222880303859711,
            0.028586938977241516,
            -0.023541752249002457,
            -0.017954021692276,
            0.0223008431494236,
            -0.03686011955142021,
            -0.01186970341950655,
            -0.004081087652593851,
            -0.03618098422884941,
            0.028065739199519157,
            -0.020607931539416313,
            0.033166054636240005,
            -0.024059994146227837,
            0.02205444872379303,
            -0.037391338497400284,
            -0.03804968297481537,
            -0.024191414937376976,
            -0.02702569030225277,
            -0.021197086200118065,
            -0.01147438120096922,
            0.01346190832555294,
            -0.006312876474112272,
            0.005803265143185854,
            0.011317781172692776,
            0.03394000977277756,
            0.007399159483611584,
            0.020410334691405296,
            0.0018333466723561287,
            0.028673682361841202,
            -0.026622965931892395,
            -0.03432036191225052,
            -0.025345180183649063,
            0.006791434716433287,
            -0.04076744243502617,
            0.005216287914663553,
            -0.030799737200140953,
            -0.019403766840696335,
            0.03139114007353783,
            -0.03446725383400917,
            -0.020522335544228554,
            0.005654504057019949,
            -0.03225378692150116,
            0.03650570660829544,
            0.021790770813822746,
            0.029168544337153435,
            -0.0028568455018103123,
            0.008563519455492496,
            -0.03645549342036247,
            0.007296199910342693,
            0.0321451798081398,
            -0.03445279225707054,
            0.006674197502434254,
            -0.02095319889485836,
            0.040556538850069046,
            0.024428019300103188,
            -0.03485260531306267,
            -0.010817501693964005,
            -0.010000139474868774,
            -0.032649122178554535,
            -0.02697528712451458,
            0.0035132437478750944,
            -0.030331077054142952,
            0.037699975073337555,
            0.03791309520602226,
            0.0354003831744194,
            0.01883331872522831,
            0.010767361149191856,
            0.02763248048722744,
            -0.0016416349681094289,
            0.021202636882662773,
            0.03368207439780235,
            -0.014926890842616558,
            -0.027413949370384216,
            0.033030133694410324,
            0.03791198506951332,
            -0.005795177537947893,
            -0.04229343309998512,
            -0.03562518209218979,
            -0.0390794537961483,
            -0.026254931464791298,
            -0.008319110609591007,
            0.012332659214735031,
            -0.008384046144783497,
            -0.033530354499816895,
            -0.01409484539180994,
            0.009082816541194916,
            0.010307464748620987,
            -0.015953702852129936,
            -0.02979019656777382,
            -0.012654222548007965,
            0.025664696469902992,
            -0.0357796736061573,
            -0.021870192140340805,
            0.025056520476937294,
            0.004806044045835733,
            -0.018881024792790413,
            -0.03927543759346008,
            -0.0033052603248506784,
            0.03030320629477501,
            -0.024607039988040924,
            0.01100137922912836,
            -0.03240123763680458,
            -0.014675565995275974,
            0.018214493989944458,
            -0.023973222821950912,
            0.033533044159412384,
            0.004780167248100042,
            -0.01859130710363388,
            -0.012541739270091057,
            -0.01775704324245453,
            0.021611327305436134,
            -0.006576119922101498,
            -0.0019762576557695866,
            -0.03395732119679451,
            -0.04108858481049538,
            0.024626245722174644,
            -0.03785603493452072,
            -0.03435979783535004,
            0.018540333956480026,
            -0.0020620825234800577,
            0.009336794726550579,
            0.022955866530537605,
            -0.01660894975066185,
            -0.030818454921245575,
            0.028994200751185417,
            -0.017607256770133972,
            -0.029696719720959663,
            0.027203109115362167,
            0.018905648961663246,
            0.035804688930511475,
            0.00098613987211138,
            0.012117886915802956,
            0.03031999059021473,
            0.038835689425468445,
            -0.013243589550256729,
            -0.0004886201350018382,
            -0.03252100199460983,
            -0.028113633394241333,
            0.026064610108733177,
            -0.025203043594956398,
            -0.013820079155266285,
            0.023254118859767914,
            -0.006982284132391214,
            0.003780485363677144,
            -0.04222343489527702,
            0.035098277032375336,
            -0.02601391263306141,
            -0.004475115332752466,
            -0.0409795306622982,
            0.03913526609539986,
            0.04010803997516632
        ],
        [
            -0.012299319729208946,
            -0.0031645542476326227,
            0.012456187047064304,
            0.036568786948919296,
            -0.026647455990314484,
            0.012892598286271095,
            0.023485993966460228,
            0.005613382440060377,
            -0.03040984645485878,
            0.009785866364836693,
            0.0009404345764778554,
            0.03469499200582504,
            -0.03353867679834366,
            0.0373247005045414,
            -0.037247709929943085,
            -0.02910335548222065,
            0.03324923664331436,
            -0.03756137192249298,
            -0.008519801311194897,
            0.01976899430155754,
            -0.03383277729153633,
            0.00654608104377985,
            0.008839192800223827,
            0.013676751405000687,
            -0.023630280047655106,
            0.03877093270421028,
            0.03399799391627312,
            -0.0018488267669454217,
            0.026168616488575935,
            -0.019718730822205544,
            -0.014870467595756054,
            -0.028935350477695465,
            0.020259937271475792,
            0.03963974490761757,
            0.0010967364069074392,
            -0.019091511145234108,
            0.04054384306073189,
            0.04071158915758133,
            2.5910805561579764e-05,
            0.016566410660743713,
            -0.039150796830654144,
            -0.019116738811135292,
            -0.01375297550112009,
            0.02729707397520542,
            -0.01242856029421091,
            0.02257172390818596,
            -0.0316455140709877,
            -0.013044255785644054,
            -0.026411451399326324,
            -0.013404745608568192,
            0.030375782400369644,
            -0.030516624450683594,
            0.031023459509015083,
            -0.01325113233178854,
            -0.03800884261727333,
            -0.04054409638047218,
            -0.02034902758896351,
            -0.007431137841194868,
            0.038424134254455566,
            0.027422985062003136,
            0.02580353617668152,
            -0.03292838856577873,
            -0.040138039737939835,
            -0.03169725090265274,
            0.041642867028713226,
            0.026561275124549866,
            0.007093380205333233,
            0.020414292812347412,
            -0.005951254162937403,
            0.013600953854620457,
            -0.0025214669294655323,
            0.01651214063167572,
            -0.02815757319331169,
            -0.03148358315229416,
            -0.03593729808926582,
            0.025993576273322105,
            0.005252261646091938,
            -0.021007899194955826,
            0.01644265092909336,
            0.03597358241677284,
            -0.027643544599413872,
            -0.008845615200698376,
            -0.01998504251241684,
            -0.020707745105028152,
            0.007908233441412449,
            0.013212967664003372,
            -0.040726419538259506,
            0.011235672980546951,
            0.036088936030864716,
            -0.027190426364541054,
            -0.01438662875443697,
            -0.0032616653479635715,
            -0.027677617967128754,
            0.018026771023869514,
            -0.02278810925781727,
            0.028537021949887276,
            -0.026402389630675316,
            -0.008245766162872314,
            -0.015793452039361,
            0.0022877645678818226,
            -0.008772692643105984,
            -0.03362789750099182,
            0.016694510355591774,
            -0.010021509602665901,
            -0.02914229966700077,
            0.03742041811347008,
            0.02692832611501217,
            -0.03247378394007683,
            -0.01860138215124607,
            -0.02514326386153698,
            -0.011585022322833538,
            0.026315676048398018,
            -0.0006305764545686543,
            0.02503892220556736,
            0.041072677820920944,
            -0.0193364005535841,
            -0.031638242304325104,
            -0.039186742156744,
            0.013592807576060295,
            0.0033575384877622128,
            0.03295763209462166,
            0.011829257011413574,
            -0.014403888955712318,
            0.029748860746622086,
            -0.03672221302986145,
            -0.0110568106174469,
            -0.012485377490520477,
            -0.03608906269073486,
            -0.003088158555328846,
            -0.028309885412454605,
            -0.009433326311409473,
            0.023721545934677124,
            0.03321899473667145,
            -0.03636447712779045,
            -0.018808415159583092,
            0.0033518997952342033,
            -0.012143735773861408,
            0.0418117493391037,
            -0.022114688530564308,
            -0.01571817137300968,
            0.015174158848822117,
            0.030249929055571556,
            0.019262971356511116,
            -0.03839397057890892,
            -0.011701605282723904,
            0.03820992261171341,
            -0.011518464423716068,
            0.024194398894906044,
            -0.03169655799865723,
            -0.012375766411423683,
            -0.028621498495340347,
            0.0032269759103655815,
            -0.02316635474562645,
            0.039031993597745895,
            0.029799148440361023,
            -0.020529862493276596,
            -0.0012453194940462708,
            -0.026481127366423607,
            -0.031644098460674286,
            0.03809602931141853,
            -0.02274652011692524,
            0.0021888231858611107,
            0.02096305415034294,
            -0.03266382962465286,
            0.030757460743188858,
            -0.015452837571501732,
            -0.030603347346186638,
            -0.0393403023481369,
            -0.005682806484401226,
            0.035716842859983444,
            -0.03073824569582939,
            0.022477727383375168,
            0.031709201633930206,
            -0.026813486590981483,
            -0.030149416998028755,
            0.004933572839945555,
            -0.006545123178511858,
            -0.019637318328022957,
            0.019352667033672333,
            -0.024113427847623825,
            0.01368535216897726,
            0.029633529484272003,
            0.02202175371348858,
            -0.034985415637493134,
            0.024374591186642647,
            -0.007042820565402508,
            -0.0004246841126587242,
            0.031199289485812187,
            -0.033258505165576935,
            -0.028477024286985397,
            0.017018863931298256,
            0.030837632715702057,
            0.000941949721891433,
            -0.03632413223385811,
            0.011212845332920551,
            0.019625063985586166,
            -0.015777887776494026,
            0.040204256772994995,
            -0.03953083977103233,
            -0.007040286436676979,
            0.006680553313344717,
            -0.027951300144195557,
            0.02427739091217518,
            -0.016475502401590347,
            0.006126606371253729,
            0.003810385474935174,
            -0.0006719523807987571,
            -0.01678110845386982,
            -0.0234933253377676,
            0.017283037304878235,
            -0.002210367936640978,
            0.01696474850177765,
            0.026098690927028656,
            -0.039519235491752625,
            0.025092730298638344,
            -0.029715104028582573,
            -0.023372294381260872,
            -0.005468815099447966,
            -0.014927295036613941,
            -0.00834642443805933,
            -0.03647001460194588,
            -0.01794612780213356,
            -0.014611040242016315,
            0.01198362372815609,
            -0.005679916590452194,
            -0.016323775053024292,
            -0.00865391455590725,
            0.0029439402278512716,
            -0.007912476547062397,
            0.03221951052546501,
            0.016347821801900864,
            0.008987653069198132,
            -0.0030029178597033024,
            -0.0257954653352499,
            -0.026943344622850418,
            0.03926163166761398,
            -0.01823982410132885,
            -0.04223858192563057,
            -0.034913819283246994,
            -0.03751728683710098,
            -0.013990269042551517,
            -0.041583456099033356,
            -0.0027239061892032623,
            0.02366877719759941,
            0.039656974375247955,
            0.04063862934708595,
            -0.009665249846875668,
            0.011941920034587383,
            0.03479842469096184,
            -0.021484801545739174,
            0.006632779724895954,
            -0.03060714714229107,
            0.029932299628853798,
            -0.03335389494895935,
            -0.029140444472432137,
            -0.020204583182930946,
            0.02053377777338028,
            0.004125221632421017,
            0.007514867000281811,
            -0.02645585872232914,
            0.01768738590180874,
            0.020772432908415794,
            -0.035928212106227875,
            0.00033569327206350863,
            -0.0198036078363657,
            -0.008393827825784683,
            0.028900347650051117,
            0.02124961093068123,
            -0.03436152637004852,
            0.01237998902797699,
            -0.016323350369930267,
            -0.03873388469219208,
            0.0006164904334582388,
            0.0060311476700007915,
            0.013869975693523884,
            -0.013409825041890144,
            -0.01158083975315094,
            0.022255048155784607,
            -0.03427719697356224,
            -0.006399937439709902,
            0.014918828383088112,
            -0.0027185939252376556,
            -0.02162647619843483,
            -0.026124294847249985,
            -0.03980236500501633,
            -0.021311139687895775,
            0.027454150840640068,
            0.027289271354675293,
            0.023523543030023575,
            -0.018188701942563057,
            0.02195989526808262,
            -0.008512613363564014,
            0.02668166719377041,
            -0.037721917033195496,
            -0.001162431901320815,
            0.023100025951862335,
            -0.03855125233530998,
            -0.008984203450381756,
            -0.03975386172533035,
            0.018053540959954262,
            0.012314097955822945,
            -0.008143116720020771,
            0.019502481445670128,
            0.03638617321848869,
            -0.02284691110253334,
            -0.04113835468888283,
            0.007282179780304432,
            -0.041341859847307205,
            -0.03000068850815296,
            -0.004895361606031656,
            -0.017038866877555847,
            -0.013049289584159851,
            -0.03413727134466171,
            -0.035353776067495346,
            0.010400645434856415,
            0.01786588877439499,
            -0.018545590341091156,
            0.005163462832570076,
            -0.03501694276928902,
            -0.03813602402806282,
            0.00976655539125204,
            -0.012265682220458984,
            -0.008647363632917404,
            -0.03122605010867119,
            0.035487450659275055,
            -0.010519680567085743,
            -0.026289809495210648,
            0.005802961066365242,
            -0.0021299964282661676,
            -0.0327339731156826,
            0.0409826934337616,
            0.014112083241343498,
            -0.027654225006699562,
            0.01728159748017788,
            -0.040046967566013336,
            -0.01283404603600502,
            -0.017637288197875023,
            0.04251816123723984,
            -0.03315216675400734,
            -0.03140232712030411,
            -0.03058747574687004,
            0.012996912002563477,
            0.019282866269350052,
            -0.003752786898985505,
            0.03507866710424423,
            0.03575117886066437,
            0.006773336324840784,
            -0.02281150594353676,
            -0.008749817498028278,
            -0.02887197956442833,
            0.002336513716727495,
            -0.025325234979391098,
            -0.03670119121670723,
            -0.0349973663687706,
            -0.0033924803137779236,
            -0.015371870249509811,
            0.010767346248030663,
            -0.005761309526860714,
            -0.00799673143774271,
            -0.03128746896982193,
            -0.01645800843834877,
            0.01968199945986271,
            0.02407095953822136,
            0.009129995480179787,
            0.0048270924016833305,
            -0.04044879227876663,
            -0.03332720696926117,
            -0.011692480184137821,
            0.015133230946958065,
            0.017833847552537918,
            0.04118787869811058,
            0.001151468139141798,
            -0.014484763145446777,
            -0.03871425986289978,
            -0.04145205020904541,
            0.0065969922579824924,
            -0.02777719683945179,
            0.01848491095006466,
            0.02732784114778042,
            -0.02032611332833767,
            -0.03135017305612564,
            0.014821019023656845,
            0.04220017418265343,
            0.022205859422683716,
            0.034169070422649384,
            -0.012119249440729618,
            -0.004537080880254507,
            -0.0056544519029557705,
            0.01475788839161396,
            -0.027037113904953003,
            -0.02330027148127556,
            -0.029355639591813087,
            0.03932243585586548,
            0.0322398841381073,
            0.03373267874121666,
            -0.00024820255930535495,
            -0.027399282902479172,
            0.032103002071380615,
            0.042168330401182175,
            0.018801257014274597,
            -0.01376904733479023,
            0.030676905065774918,
            -0.02723158895969391,
            0.022137202322483063,
            -0.029025495052337646,
            0.02095181494951248,
            0.00025254671345464885,
            -0.007572133094072342,
            0.005162124987691641,
            0.0009110276587307453,
            0.019302505999803543,
            0.03686485067009926,
            0.007974869571626186,
            -0.040761418640613556,
            -0.02244863286614418,
            -0.04116404801607132,
            -0.014672002755105495,
            0.007231543306261301,
            -0.0067571792751550674,
            0.009195997379720211,
            -0.028109470382332802,
            0.03447871655225754,
            -0.020926564931869507,
            0.0338706336915493,
            0.016676926985383034,
            -0.03423364460468292,
            -0.0029088167939335108,
            -0.017517415806651115,
            -0.0030318102799355984,
            -0.02704540267586708,
            -0.03680844232439995,
            0.04097294062376022,
            -0.035000238567590714,
            0.02441655658185482,
            -0.00473759975284338,
            0.016363371163606644,
            -0.008090087212622166,
            0.03696107119321823,
            0.03973151370882988,
            -0.012364514172077179,
            -0.0414876788854599,
            -0.007742281071841717,
            -0.012209399603307247,
            0.015943454578518867,
            -0.01999431662261486,
            0.006854136008769274,
            -0.028648827224969864,
            0.010035021230578423,
            -0.02919371984899044,
            0.029341425746679306,
            0.0405159667134285,
            -0.01698680780827999,
            0.019182497635483742,
            0.0012127902591601014,
            -0.001869005966000259,
            0.03757156431674957,
            0.035127755254507065,
            -0.0255978275090456,
            0.033271268010139465,
            -0.0378175750374794,
            -0.006951917428523302,
            -0.010776770301163197,
            0.0007477778126485646,
            0.009563268162310123,
            -0.027185214683413506,
            0.031369950622320175,
            5.723880894947797e-05,
            -0.01587686501443386,
            0.02617911621928215,
            -0.009409669786691666,
            0.0020116218365728855,
            0.03636426106095314,
            -0.00819434318691492,
            0.013274055905640125,
            -0.03383276239037514,
            -0.030207611620426178,
            -0.015948636457324028,
            0.014180946163833141,
            0.02672574296593666,
            -0.005984669551253319,
            -0.003275230061262846,
            -0.002247802447527647,
            0.01709691621363163,
            -0.006852945778518915,
            0.013603471219539642,
            -0.014558497816324234,
            0.022353600710630417,
            0.03491779416799545,
            -0.03076026402413845,
            -0.03332124277949333,
            -0.03217952698469162,
            0.0022514676675200462,
            0.03836250305175781,
            -0.01657017320394516,
            0.0005935882800258696,
            0.00649469718337059,
            -0.012884226627647877,
            -0.004225812386721373,
            -0.036603059619665146,
            0.02034241519868374,
            -0.01826290413737297,
            0.009710836224257946,
            0.014223078265786171,
            -0.027067143470048904,
            0.015046393498778343,
            -0.041995786130428314,
            -0.024302497506141663,
            -0.03143887594342232,
            -0.005422923713922501,
            -0.0005601603188551962,
            0.0026383965741842985,
            0.0013532127486541867,
            0.025308484211564064,
            0.003135311184450984,
            -0.013630516827106476,
            -0.03307081386446953,
            0.01118015218526125,
            -0.04005103558301926,
            -0.002183217089623213,
            -0.01401560753583908,
            -0.028857992962002754,
            0.033988118171691895,
            0.00019918572797905654,
            -0.029001623392105103,
            0.006494185887277126,
            0.018050456419587135,
            -0.037895336747169495,
            0.023556552827358246,
            -0.04094169661402702,
            0.02182897925376892,
            0.009272590279579163,
            -0.01791994273662567,
            -0.020314276218414307,
            0.03569371625781059,
            -0.016035204753279686,
            0.015419990755617619,
            0.004031063988804817,
            -0.008873059414327145,
            0.02049141190946102,
            -0.00899247545748949,
            0.009389057755470276,
            -0.007995342835783958,
            -0.001682706642895937,
            -0.003760273801162839,
            0.034645892679691315,
            0.03342925384640694,
            -0.016930025070905685,
            0.017850961536169052,
            0.0019550437573343515,
            -0.005861538928002119,
            0.021060002967715263,
            -0.018712617456912994
        ],
        [
            -0.009946951642632484,
            0.01700902171432972,
            -0.04419494420289993,
            0.011533528566360474,
            -0.043849457055330276,
            -0.03412444889545441,
            0.03521938994526863,
            0.022995825856924057,
            -0.02825717069208622,
            0.036156851798295975,
            0.01665079966187477,
            0.03866146132349968,
            0.020748984068632126,
            -0.018787819892168045,
            0.0064500439912080765,
            -0.01837109960615635,
            0.023961426690220833,
            0.030260562896728516,
            -0.010749367997050285,
            0.028851903975009918,
            -0.029198478907346725,
            -0.021359434351325035,
            -0.01835266873240471,
            0.007709316443651915,
            -0.00479108514264226,
            -0.007384035736322403,
            0.040850814431905746,
            -0.011823371984064579,
            -0.0029911582823842764,
            -0.020625323057174683,
            -0.0005873938789591193,
            -0.036076877266168594,
            0.004280059132725,
            -0.0020208770874887705,
            -0.013642942532896996,
            0.033628612756729126,
            0.01946396194398403,
            0.016015853732824326,
            -0.029224181547760963,
            0.03832963481545448,
            0.037562087178230286,
            -0.03676338866353035,
            0.000625609012786299,
            -0.01710394211113453,
            -0.029952360317111015,
            -0.005381061229854822,
            -0.02024935930967331,
            0.012790189124643803,
            -0.017242157831788063,
            -0.011464433744549751,
            -0.02123779058456421,
            0.012284047901630402,
            -0.02179701253771782,
            0.03848220780491829,
            0.014580635353922844,
            0.008615875616669655,
            0.03829711675643921,
            0.03378758579492569,
            0.03238440677523613,
            -0.027854474261403084,
            -0.005658991169184446,
            0.018855148926377296,
            0.03344007208943367,
            -0.014754373580217361,
            -0.014672367833554745,
            -0.03800647333264351,
            0.039614807814359665,
            -0.023485392332077026,
            -0.00046517897862941027,
            -0.004566282033920288,
            -0.004807574674487114,
            -0.034246448427438736,
            0.022317245602607727,
            -0.01705465465784073,
            0.01822655089199543,
            -0.004998495336622,
            0.02336389385163784,
            0.00603387551382184,
            0.021671848371624947,
            -0.031113287433981895,
            0.013959983363747597,
            0.02108391560614109,
            0.014603892341256142,
            0.020452281460165977,
            0.010701915249228477,
            0.03890199586749077,
            0.014090687036514282,
            0.01518580038100481,
            0.03230847418308258,
            0.026570776477456093,
            0.015310268849134445,
            -0.04239946976304054,
            0.014875437133014202,
            -0.03201473504304886,
            -0.020643290132284164,
            -0.003995053004473448,
            0.02831539884209633,
            0.0022324377205222845,
            0.03389761224389076,
            0.01382038276642561,
            0.035767942667007446,
            0.027787571772933006,
            0.014848138205707073,
            -0.028163814917206764,
            -0.030614430084824562,
            0.022700369358062744,
            -0.028758620843291283,
            -0.026488274335861206,
            -0.02802141010761261,
            0.0046028196811676025,
            -0.030176611617207527,
            0.001991438679397106,
            0.0026463426183909178,
            0.011021856218576431,
            -0.0009576311567798257,
            0.033529844135046005,
            0.011089696548879147,
            -0.03401488810777664,
            -0.008417077362537384,
            -0.01403525285422802,
            -0.005197512451559305,
            0.017832759767770767,
            0.03640105202794075,
            -0.022090882062911987,
            0.029898591339588165,
            0.029441535472869873,
            0.04052865132689476,
            0.01140173152089119,
            -0.03853146731853485,
            0.030628852546215057,
            -0.01236382219940424,
            0.032631225883960724,
            0.015233108773827553,
            0.016531599685549736,
            0.0019092783331871033,
            0.024182742461562157,
            -0.03653348982334137,
            0.005855708848685026,
            -0.04135075584053993,
            -0.041079841554164886,
            -0.033376067876815796,
            0.0037734995130449533,
            0.033524300903081894,
            -0.01550661027431488,
            -0.03324643149971962,
            -0.004466456826776266,
            -0.009807219728827477,
            0.0051651885733008385,
            0.004052095115184784,
            0.02697301097214222,
            -0.028486231341958046,
            0.004954603500664234,
            -0.002723145065829158,
            0.014753229916095734,
            0.007919068448245525,
            0.017251474782824516,
            0.0028667862061411142,
            -0.006255289074033499,
            -0.008455988951027393,
            0.004080121871083975,
            -0.039402637630701065,
            -0.020162425935268402,
            -0.03741374611854553,
            -0.022953033447265625,
            0.016390148550271988,
            0.038328174501657486,
            0.002469921251758933,
            0.025146080181002617,
            -0.017873166128993034,
            -0.018010146915912628,
            0.037753455340862274,
            0.011503519490361214,
            0.02715786173939705,
            -0.0025926167145371437,
            -0.004579995758831501,
            -0.001325162942521274,
            -0.0294280294328928,
            -0.031865764409303665,
            0.028329085558652878,
            0.00999450497329235,
            -0.03543456271290779,
            0.02436062879860401,
            -0.016622748225927353,
            0.0395427942276001,
            0.03929939493536949,
            0.015003420412540436,
            -0.00443069776520133,
            -0.011370356194674969,
            0.00037411952507682145,
            0.009336688555777073,
            -0.01818031631410122,
            -0.02886161394417286,
            0.035341233015060425,
            0.030094273388385773,
            -0.02011430636048317,
            0.030462536960840225,
            0.012680239044129848,
            0.037359632551670074,
            -0.03326569125056267,
            0.024515332654118538,
            -0.02537117339670658,
            0.030691931024193764,
            -0.016506170853972435,
            -0.026818616315722466,
            -0.001543548540212214,
            0.03156531602144241,
            0.027771171182394028,
            0.011738631874322891,
            -0.02379707619547844,
            -0.033311765640974045,
            -0.027953853830695152,
            -0.009638167917728424,
            0.011218396946787834,
            0.010235701687633991,
            0.013978215865790844,
            -0.014875748194754124,
            0.04226342961192131,
            -0.025499636307358742,
            -0.013286622241139412,
            0.015541036613285542,
            0.0189303420484066,
            -0.003758709179237485,
            -0.006318724248558283,
            0.0076690069399774075,
            0.019339537248015404,
            0.03376877307891846,
            -0.00329617434181273,
            -0.014384404756128788,
            0.02991173043847084,
            -0.01213354617357254,
            0.037100911140441895,
            -0.041711222380399704,
            -0.019577164202928543,
            -0.039865944534540176,
            0.023084137588739395,
            -0.023708131164312363,
            -0.0013952732551842928,
            -0.011956886388361454,
            0.016733815893530846,
            0.020181968808174133,
            0.03280717134475708,
            -0.018819430842995644,
            0.023065578192472458,
            -0.0018109199590981007,
            0.019640319049358368,
            0.02285204641520977,
            0.029868273064494133,
            0.03641406446695328,
            -0.03469284623861313,
            0.030744682997465134,
            0.03925430402159691,
            -0.037425071001052856,
            -0.0359584242105484,
            0.020678333938121796,
            0.00886443816125393,
            -0.03153333067893982,
            0.03027995675802231,
            0.005111761391162872,
            -0.002597542479634285,
            0.013767755590379238,
            -0.017293201759457588,
            0.00025952726718969643,
            -0.015634585171937943,
            -0.009879176504909992,
            0.02353448048233986,
            -0.0038181559648364782,
            -0.0271954033523798,
            -0.042113643139600754,
            -0.003647950477898121,
            -0.01595567725598812,
            -0.01457598339766264,
            -0.031312696635723114,
            -0.0002468307502567768,
            -0.029519381001591682,
            -0.021630534902215004,
            0.023436369374394417,
            -0.005189819727092981,
            -0.003219383768737316,
            0.037895943969488144,
            -0.003926000092178583,
            0.034731484949588776,
            -0.020728981122374535,
            0.013128306716680527,
            -0.023244131356477737,
            -0.03163019195199013,
            0.013486120849847794,
            -0.04483025521039963,
            -0.04316743090748787,
            -0.03312237933278084,
            -0.003403955139219761,
            0.021213458850979805,
            0.007132123690098524,
            -0.022240137681365013,
            0.00591020192950964,
            -0.01285556796938181,
            0.006798544432967901,
            -0.0002446038997732103,
            -0.0013269969495013356,
            0.03755051642656326,
            -0.03126044571399689,
            0.0008788391714915633,
            -0.0010615470819175243,
            -0.005634073168039322,
            -0.02248912677168846,
            -0.034261710941791534,
            0.0373421348631382,
            -0.013360565528273582,
            -0.021366426721215248,
            -0.022370528429746628,
            -0.029142925515770912,
            0.004442331846803427,
            0.011952978558838367,
            -0.027072016149759293,
            0.02654874138534069,
            0.035827234387397766,
            -0.04171900451183319,
            -0.006981076672673225,
            0.028482835739850998,
            -0.011663457378745079,
            -0.04085565730929375,
            0.03667290508747101,
            0.019449258223176003,
            -0.034446895122528076,
            -0.032703056931495667,
            0.019409310072660446,
            -0.016410352662205696,
            0.03129297494888306,
            0.008249722421169281,
            0.028059393167495728,
            0.01750260218977928,
            -0.007121977396309376,
            -0.02446761354804039,
            -0.03888081759214401,
            0.011965053156018257,
            0.03906423598527908,
            -0.034055039286613464,
            -0.03122025541961193,
            0.010033001191914082,
            -0.03863238915801048,
            0.0175161175429821,
            0.001985719194635749,
            0.024747226387262344,
            -0.026821287348866463,
            -0.006670021917670965,
            -0.02674422599375248,
            0.022067509591579437,
            0.029082830995321274,
            0.0027499087154865265,
            -0.02285085618495941,
            0.023744480684399605,
            -0.040919844061136246,
            -0.0075793699361383915,
            -0.04166966304183006,
            0.010287373326718807,
            0.01732819154858589,
            0.024548187851905823,
            -0.02566162310540676,
            0.02572474628686905,
            -0.014473398216068745,
            0.0018999935127794743,
            0.02738855965435505,
            -0.0367286391556263,
            -0.023730501532554626,
            0.019297802820801735,
            0.014163517393171787,
            -0.013501167297363281,
            -0.027833718806505203,
            -0.025630228221416473,
            -0.012513025663793087,
            -0.00488615408539772,
            -0.04280855134129524,
            -0.033819686621427536,
            0.025412555783987045,
            0.036365240812301636,
            0.019724572077393532,
            -0.022697189822793007,
            -0.004229809623211622,
            -0.03193660452961922,
            -0.031554922461509705,
            -0.029713012278079987,
            -0.017602214589715004,
            0.029902640730142593,
            -0.01874653995037079,
            0.031741220504045486,
            0.004949364811182022,
            -0.03437742590904236,
            0.010303132236003876,
            0.019982751458883286,
            0.0015965820057317615,
            0.004305072594434023,
            -0.031823210418224335,
            0.016689429059624672,
            0.03969249501824379,
            0.00039680395275354385,
            -0.027445588260889053,
            0.026646263897418976,
            -0.00485331192612648,
            -0.04189886525273323,
            -0.011876099742949009,
            -0.038972027599811554,
            0.027932606637477875,
            -0.013844987377524376,
            0.02814926765859127,
            -0.004983281716704369,
            0.024211643263697624,
            -0.016653774306178093,
            0.024609040468931198,
            0.03893536329269409,
            -0.004752224776893854,
            -0.01234243344515562,
            0.02852184884250164,
            -0.035708893090486526,
            -0.031190620735287666,
            0.017250362783670425,
            0.03771206736564636,
            -0.0010684846201911569,
            -0.0027919092681258917,
            0.010544990189373493,
            -0.019962195307016373,
            -2.993100497405976e-05,
            0.0078069292940199375,
            0.03795316815376282,
            -0.03693556785583496,
            -0.029472626745700836,
            0.007433791644871235,
            -0.04269107058644295,
            -0.04153246432542801,
            -0.03223630040884018,
            -0.042673856019973755,
            0.002892673248425126,
            0.026972973719239235,
            0.029707569628953934,
            -0.04241284728050232,
            0.014027724973857403,
            -0.021119005978107452,
            0.028623836115002632,
            -0.004975966177880764,
            -0.0018321130191907287,
            0.001680663670413196,
            0.010979719460010529,
            0.029642533510923386,
            -0.03269800916314125,
            0.023711806163191795,
            -0.028043989092111588,
            0.0050964574329555035,
            -0.02291230298578739,
            0.01769036427140236,
            0.031323350965976715,
            0.019749199971556664,
            -0.015396500937640667,
            0.02083422616124153,
            -0.03559987246990204,
            0.037755124270915985,
            0.0001379966561216861,
            -0.012328460812568665,
            0.0374407097697258,
            0.007083078846335411,
            -0.007413238752633333,
            -0.018938913941383362,
            -0.02853100560605526,
            -0.01697441004216671,
            -0.03415243700146675,
            -0.029222335666418076,
            -0.0126029709354043,
            0.026055028662085533,
            -0.031047197058796883,
            -0.03742431104183197,
            0.02425595559179783,
            -0.03251307085156441,
            -0.02278783731162548,
            0.008163218386471272,
            -0.010832497850060463,
            0.022489843890070915,
            -0.007432627025991678,
            -0.04067850857973099,
            0.0222568791359663,
            0.04137280583381653,
            -0.015803329646587372,
            -0.022662650793790817,
            0.0011752001009881496,
            0.005751580931246281,
            -0.007042288314551115,
            0.008899671956896782,
            0.035016611218452454,
            -0.0048481374979019165,
            0.02218877151608467,
            0.015955714508891106,
            0.03474309295415878,
            -0.0005314152222126722,
            0.012352876365184784,
            -0.03030386008322239,
            0.03299625962972641,
            0.04204577952623367,
            -0.022558465600013733,
            0.03247108682990074,
            -0.021398568525910378,
            0.021356074139475822,
            -0.02265753597021103,
            -0.016171857714653015,
            -0.040884122252464294,
            -0.0167902372777462,
            -0.026180312037467957,
            0.0013548264978453517,
            -0.018846658989787102,
            -0.035825420171022415,
            -0.020332617685198784,
            0.03817173093557358,
            -0.01873880811035633,
            -0.012357054278254509,
            -0.009324583224952221,
            -0.013494102284312248,
            0.026955395936965942,
            -0.021723533049225807,
            0.0010094812605530024,
            0.03434128686785698,
            0.028695804998278618,
            -0.017185211181640625,
            0.025814833119511604,
            0.01347250584512949,
            -0.009731621481478214,
            0.003598686307668686,
            -0.010884268209338188,
            -0.04117829352617264,
            0.025047551840543747,
            0.025489849969744682,
            -0.02091674692928791,
            -0.008198140189051628,
            -0.019810717552900314,
            -0.004681023303419352,
            0.00924601498991251,
            -0.006730841007083654,
            -0.0006808677571825683,
            0.0013222990091890097,
            0.001770893926732242,
            0.0024597560986876488,
            0.039785146713256836,
            0.026324382051825523,
            0.014135219156742096,
            0.041276704519987106,
            0.012995406985282898,
            -0.04081832617521286,
            0.004513572435826063,
            0.04129693657159805,
            0.008501515723764896,
            0.02305193617939949,
            0.007759156636893749,
            0.014991330914199352,
            0.021735096350312233,
            -0.02010888233780861,
            0.019293563440442085,
            0.002902645617723465,
            0.01809968613088131
        ],
        [
            0.01642635092139244,
            0.007973610423505306,
            0.0019990417640656233,
            0.004959382116794586,
            0.025155749171972275,
            0.01210550032556057,
            0.024410204961895943,
            0.04112088307738304,
            -0.013306224718689919,
            0.04019683599472046,
            -0.012176119722425938,
            0.042222075164318085,
            0.0009871654910966754,
            -0.009178404696285725,
            0.04295788332819939,
            0.015377890318632126,
            0.03468051552772522,
            0.006766751874238253,
            0.01596825383603573,
            0.001515887794084847,
            -0.022260650992393494,
            0.029115818440914154,
            0.04409828782081604,
            -0.023149365559220314,
            -0.004231743514537811,
            0.011647904291749,
            -0.038830891251564026,
            -0.03725718706846237,
            -0.007820344530045986,
            -0.02318832091987133,
            -0.02929965779185295,
            -0.013889576308429241,
            0.017212018370628357,
            0.008412818424403667,
            0.0031699053943157196,
            -0.03737544268369675,
            -0.012315895408391953,
            0.034361325204372406,
            -0.021304678171873093,
            0.004576558712869883,
            -0.008788845501840115,
            -0.030442578718066216,
            0.02935587242245674,
            -0.039577946066856384,
            -0.011031721718609333,
            0.04004960134625435,
            -0.04188147187232971,
            -0.015720272436738014,
            0.042503733187913895,
            0.005425155628472567,
            0.0074954889714717865,
            -0.020167943090200424,
            -0.01121008675545454,
            0.04172491282224655,
            -0.012504163198173046,
            0.0425894521176815,
            -0.039141420274972916,
            -0.0293575506657362,
            -0.0337400808930397,
            -0.04079902917146683,
            -0.016220424324274063,
            -0.0027429237961769104,
            -0.004271939862519503,
            0.04123310372233391,
            -0.013021932914853096,
            -0.0018362688133493066,
            -0.023719003424048424,
            0.03555294871330261,
            0.014967613853514194,
            -0.029437324032187462,
            -0.03188693895936012,
            0.041924700140953064,
            -0.012012111954391003,
            -0.01963108591735363,
            0.017142033204436302,
            -0.023915598168969154,
            -0.029546795412898064,
            -0.02556784264743328,
            0.012958211824297905,
            -0.013269846327602863,
            0.022080058231949806,
            0.030743293464183807,
            -0.02070251852273941,
            -0.008670897223055363,
            0.0391363725066185,
            -0.014223678037524223,
            0.0018133126432076097,
            -0.023734839633107185,
            -0.010028020478785038,
            -0.00027793896151706576,
            -0.012747380882501602,
            0.018122490495443344,
            -0.02519875392317772,
            -0.01996348239481449,
            -0.01905694790184498,
            0.016627706587314606,
            0.03601465001702309,
            -0.02937474474310875,
            0.006372001953423023,
            0.043972525745630264,
            -0.012073990888893604,
            0.033075205981731415,
            -0.01042815949767828,
            -0.012340223416686058,
            -0.017867088317871094,
            -0.038507379591464996,
            0.04270254075527191,
            -0.005038540344685316,
            -0.016137633472681046,
            0.033401235938072205,
            0.02294464223086834,
            0.043328482657670975,
            -0.012966127134859562,
            0.02705462835729122,
            0.020044827833771706,
            0.03843994066119194,
            0.0012115177232772112,
            -0.004018690437078476,
            -0.026766270399093628,
            -0.026675457134842873,
            0.0029592239297926426,
            0.0013121701776981354,
            -0.03275547921657562,
            -0.017826547846198082,
            -0.038461893796920776,
            -0.008380374871194363,
            -0.031085388734936714,
            0.019278081133961678,
            0.01903011091053486,
            0.00481537077575922,
            0.0033421642147004604,
            -0.026165634393692017,
            0.023475807160139084,
            0.004285464528948069,
            0.033868998289108276,
            0.014782181940972805,
            -0.037543945014476776,
            0.007662530057132244,
            0.040148817002773285,
            0.006479831878095865,
            -0.010354585945606232,
            -0.010593467392027378,
            0.026615498587489128,
            0.006551825907081366,
            0.033979855477809906,
            -0.027672292664647102,
            -0.033500440418720245,
            -0.03507572039961815,
            0.042049139738082886,
            -0.016675475984811783,
            -0.04152537137269974,
            0.03008962981402874,
            -0.012712500058114529,
            0.009642895311117172,
            -0.014750701375305653,
            -0.008851551450788975,
            -0.01963105984032154,
            -0.03332864120602608,
            -0.013685453683137894,
            -0.03786653280258179,
            -0.018773378804326057,
            0.03265507146716118,
            0.038682613521814346,
            -0.021164966747164726,
            -0.027352087199687958,
            0.004365438129752874,
            0.004964632913470268,
            0.02459779754281044,
            0.02512540854513645,
            0.009643476456403732,
            -0.011757470667362213,
            -0.023665912449359894,
            -0.03971897065639496,
            0.008101599290966988,
            0.01497668121010065,
            0.011922849342226982,
            -0.03492166846990585,
            0.03810473531484604,
            0.016221944242715836,
            0.03061074949800968,
            0.012152757495641708,
            -0.0013443781062960625,
            0.02788052335381508,
            0.00974888913333416,
            0.00027890069759450853,
            -0.014132254756987095,
            -0.0191743653267622,
            0.0070672049187123775,
            -0.029322495684027672,
            -0.009182112291455269,
            0.007170406635850668,
            0.02639218606054783,
            0.0191802941262722,
            0.04236342012882233,
            0.004619286395609379,
            0.011267146095633507,
            -0.019213179126381874,
            0.036209650337696075,
            -0.025450102984905243,
            -0.027681322768330574,
            -0.03810179606080055,
            -0.021661387756466866,
            -0.03184843063354492,
            0.008872317150235176,
            0.012535150162875652,
            -0.019664326682686806,
            -0.008211839944124222,
            0.01323283463716507,
            -0.023702634498476982,
            -0.016326958313584328,
            0.01303694024682045,
            -0.0342453271150589,
            -0.015780605375766754,
            0.0005224704509600997,
            -0.012605971656739712,
            -0.026244211941957474,
            0.04163520410656929,
            0.0013600901002064347,
            0.03244319185614586,
            -0.004415806382894516,
            0.01023293286561966,
            -0.015061596408486366,
            0.03906849026679993,
            0.030098076909780502,
            0.00918289553374052,
            0.008077995851635933,
            0.0225507952272892,
            0.014287497848272324,
            -0.015219643712043762,
            0.03537750989198685,
            0.00358186406083405,
            0.03406001627445221,
            -0.029653457924723625,
            0.024363916367292404,
            0.002318953163921833,
            -0.011819968931376934,
            -0.02052915468811989,
            0.009948153980076313,
            -0.008307778276503086,
            -0.03211207315325737,
            -0.014124778099358082,
            -0.005049262195825577,
            -0.03222708776593208,
            0.009340611286461353,
            -0.0014707207446917892,
            -0.028546791523694992,
            -0.01138265710324049,
            0.03438001871109009,
            0.035684093832969666,
            0.0008484204299747944,
            -0.00914315041154623,
            -0.031078143045306206,
            0.01925433985888958,
            0.02429368905723095,
            0.040619321167469025,
            -0.013439565896987915,
            -0.015009984374046326,
            0.019916806370019913,
            -0.013881174847483635,
            0.015382487326860428,
            -0.006817826069891453,
            -0.018358293920755386,
            0.026350274682044983,
            -0.023563217371702194,
            0.022176362574100494,
            -0.012531488202512264,
            -0.016017571091651917,
            0.04131484776735306,
            -0.004354159813374281,
            0.039643608033657074,
            -0.019380996003746986,
            0.03641127422451973,
            0.009360329248011112,
            -0.0009246854460798204,
            0.026766031980514526,
            -0.03433528169989586,
            -0.021244613453745842,
            0.0016869138926267624,
            -0.004822127055376768,
            0.012958329170942307,
            0.022801967337727547,
            0.031517788767814636,
            -0.015902157872915268,
            0.04329641908407211,
            0.019001206383109093,
            -0.03060316853225231,
            -0.02568046562373638,
            0.007102707400918007,
            -0.032377149909734726,
            -0.028428932651877403,
            -0.021079951897263527,
            -0.009388295002281666,
            -0.016865966841578484,
            -0.01902049407362938,
            0.019889233633875847,
            -0.00028320198180153966,
            0.03607073426246643,
            0.018765375018119812,
            0.033474016934633255,
            -0.03537764400243759,
            0.02811710350215435,
            0.007814966142177582,
            -0.023540625348687172,
            -0.012160632759332657,
            0.012326611205935478,
            -0.038616497069597244,
            -0.0025302073918282986,
            -0.001396261272020638,
            -0.03333034738898277,
            -0.036036498844623566,
            -0.042230237275362015,
            0.02531611919403076,
            0.04218120127916336,
            0.019602563232183456,
            0.005355084780603647,
            0.02747027575969696,
            -0.009512999095022678,
            -0.03341187909245491,
            -0.009573984891176224,
            0.04092163220047951,
            0.010883699171245098,
            0.017907315865159035,
            0.04089224338531494,
            -0.02124188467860222,
            0.012170204892754555,
            0.040974028408527374,
            -0.03057912550866604,
            -0.016812078654766083,
            -0.0005123612936586142,
            0.024400964379310608,
            -0.04076685011386871,
            0.012894936837255955,
            0.03506804630160332,
            -0.03291349858045578,
            0.011053106747567654,
            0.01937098614871502,
            0.009349686093628407,
            -0.037889521569013596,
            -0.015423296950757504,
            0.006072929594665766,
            0.03952631726861,
            0.03024984523653984,
            -0.009192696772515774,
            -0.009821767918765545,
            0.025505036115646362,
            -0.039676714688539505,
            -0.038240697234869,
            0.0081648463383317,
            -0.008553517051041126,
            0.0027758865617215633,
            -0.020135845988988876,
            -0.013082151301205158,
            0.021349992603063583,
            -0.040615908801555634,
            -0.024801509454846382,
            -0.009869793429970741,
            0.020462745800614357,
            -0.0015288679860532284,
            -0.026032578200101852,
            0.02253696322441101,
            -0.023554807528853416,
            0.013527617789804935,
            0.0063453358598053455,
            0.03083011694252491,
            -0.015778185799717903,
            -0.019463827833533287,
            -0.023090636357665062,
            -0.023242954164743423,
            0.0068514966405928135,
            0.0382898785173893,
            0.0034971407148987055,
            0.02497089095413685,
            0.007686102297157049,
            0.020716102793812752,
            -0.033071309328079224,
            -0.020641444250941277,
            -0.007103845477104187,
            0.0409126952290535,
            -0.003580467076972127,
            0.03958643972873688,
            0.005250840447843075,
            -0.0019796506967395544,
            -0.00014109320181887597,
            0.02264827862381935,
            0.03164445981383324,
            0.02969801239669323,
            -0.02833869308233261,
            0.010591070167720318,
            0.02989215776324272,
            -0.0401066318154335,
            -0.011793366633355618,
            0.03617779538035393,
            0.018084364011883736,
            -0.026241490617394447,
            -0.000889986171387136,
            -0.00447513721883297,
            0.012816322967410088,
            0.003749050432816148,
            -0.03219335526227951,
            0.02875624969601631,
            -0.003509286092594266,
            0.026091741397976875,
            0.01364936400204897,
            0.02395179681479931,
            -0.03937824070453644,
            0.012905459851026535,
            -0.0027889192570000887,
            0.04068191722035408,
            -0.038042426109313965,
            -0.028146475553512573,
            -0.0011705588549375534,
            -0.033177487552165985,
            -0.020729349926114082,
            -0.0035498107317835093,
            0.025122422724962234,
            -0.03947117552161217,
            0.022882824763655663,
            0.027429498732089996,
            0.03906020149588585,
            0.020978886634111404,
            -0.04126828908920288,
            -0.026688195765018463,
            0.005757488310337067,
            -0.03450823575258255,
            -0.04194515570998192,
            0.03593793883919716,
            -2.8016980650136247e-05,
            -0.011898857541382313,
            -0.0005528171313926578,
            -0.02457399107515812,
            0.02950756438076496,
            -0.026446670293807983,
            0.024035681039094925,
            0.03719783201813698,
            0.004600475542247295,
            -0.039270009845495224,
            -0.004332457669079304,
            0.03931427374482155,
            -0.03824372589588165,
            -0.011886107735335827,
            -0.006365891546010971,
            0.003219809615984559,
            -0.021692892536520958,
            -0.0045407540164887905,
            0.002666032174602151,
            -0.008712908253073692,
            0.0008545836317352951,
            0.018921783193945885,
            0.01112130843102932,
            -0.02854311466217041,
            -0.012384232133626938,
            0.007673369720578194,
            -0.011418178677558899,
            0.024260666221380234,
            -0.009089227765798569,
            -0.004526910837739706,
            0.03723141923546791,
            -0.03689904138445854,
            0.0407039038836956,
            0.0015543345361948013,
            -0.016681769862771034,
            -0.0024296327028423548,
            -0.022084739059209824,
            -0.0026898416690528393,
            -0.04036074876785278,
            0.026774199679493904,
            -0.021136904135346413,
            -0.012760395184159279,
            0.028978724032640457,
            0.030886350199580193,
            0.016483938321471214,
            0.008673815056681633,
            -0.006075447425246239,
            0.0015105648199096322,
            0.03414437174797058,
            0.029602238908410072,
            -0.012020335532724857,
            -0.020023507997393608,
            -0.0017593036172911525,
            0.015494756400585175,
            0.003067820332944393,
            -0.0054761990904808044,
            -0.033977530896663666,
            -0.0009157092426903546,
            -0.009902670979499817,
            0.01432371512055397,
            0.01668374240398407,
            -0.028161821886897087,
            -0.0002775493776425719,
            -0.019025901332497597,
            0.020302429795265198,
            -0.01330533530563116,
            0.025847526267170906,
            -0.03260717913508415,
            0.009584975428879261,
            0.016044389456510544,
            -0.03672882169485092,
            -0.02304735593497753,
            0.0021932998206466436,
            0.03463276848196983,
            -0.03938848525285721,
            0.01618742011487484,
            -0.02190237306058407,
            0.019936364144086838,
            -0.0016886679222807288,
            -0.01568053476512432,
            0.0063328868709504604,
            -0.0038770344108343124,
            -0.03430420905351639,
            0.03524342179298401,
            -0.011102929711341858,
            0.02483055368065834,
            0.021402979269623756,
            0.006357439327985048,
            -0.022662775591015816,
            0.008611932396888733,
            -0.012465685606002808,
            -0.03369865193963051,
            -0.03964793309569359,
            -0.04039354994893074,
            -0.01897064410150051,
            -0.006104851607233286,
            -0.03203224763274193,
            0.037271898239851,
            -0.02677791751921177,
            -0.02798358164727688,
            -0.0421576090157032,
            0.029730968177318573,
            -0.023180900141596794,
            -0.000696113973390311,
            -0.042266763746738434,
            0.04246474429965019,
            0.018219556659460068,
            0.025465423241257668,
            -0.02554015815258026,
            0.0038634794764220715,
            -0.02055719867348671,
            0.005379960406571627,
            0.0189620703458786,
            -0.0053498148918151855,
            -0.02474893629550934,
            0.03243733197450638,
            0.021343562752008438,
            -0.040121033787727356,
            -0.042334433645009995,
            0.032603971660137177,
            0.03603142872452736,
            0.020374838262796402,
            -0.006059467326849699,
            0.0015127401566132903,
            -0.024915453046560287,
            0.031957101076841354
        ],
        [
            0.05218269303441048,
            0.041954316198825836,
            -0.010612275451421738,
            -0.004308303352445364,
            -0.019660117104649544,
            0.0017648861976340413,
            0.007396486587822437,
            -0.01236680243164301,
            0.008984607644379139,
            -0.025491757318377495,
            0.005374115891754627,
            -0.01441525761038065,
            0.02573099546134472,
            -0.026621727272868156,
            0.04827549681067467,
            -0.000858799961861223,
            -0.011725923977792263,
            0.03817443922162056,
            -0.008842973038554192,
            0.0512353777885437,
            0.0005571533110924065,
            0.027891967445611954,
            -0.010712020099163055,
            0.04532361775636673,
            0.013707522302865982,
            -0.029159948229789734,
            -0.03064844198524952,
            -0.03893492370843887,
            0.017222244292497635,
            0.008103429339826107,
            -0.03468500077724457,
            -0.026015041396021843,
            -0.011231529526412487,
            0.04490794986486435,
            0.029736865311861038,
            -0.004446509759873152,
            0.04083992913365364,
            0.02935817465186119,
            0.0419916957616806,
            0.04239964112639427,
            -0.005485808942466974,
            -0.021138083189725876,
            0.02580537460744381,
            -0.030437041074037552,
            -0.010291226208209991,
            0.011628364212810993,
            -0.02275782637298107,
            -0.017825743183493614,
            -0.017454542219638824,
            0.003260658122599125,
            -0.031630005687475204,
            0.020754167810082436,
            -0.02582637406885624,
            0.007233368698507547,
            0.0066508143208920956,
            -0.02825389988720417,
            -0.007963714189827442,
            0.031232081353664398,
            -0.02371932566165924,
            -0.027983320876955986,
            0.009560867212712765,
            0.03867504373192787,
            -0.011133372783660889,
            -0.0263739712536335,
            0.010336274281144142,
            -0.025427063927054405,
            0.01135349366813898,
            0.02865520492196083,
            -0.026641907170414925,
            -0.03412642329931259,
            -0.042249277234077454,
            -0.0009437546250410378,
            -0.00706784101203084,
            -0.03947066515684128,
            -0.01947358436882496,
            0.014054483734071255,
            -0.02460436522960663,
            -0.009472495876252651,
            0.031100600957870483,
            0.037596285343170166,
            0.03623684495687485,
            0.040392689406871796,
            0.008501428179442883,
            -0.010044679045677185,
            0.031768541783094406,
            0.035970691591501236,
            -0.027965359389781952,
            0.027936620637774467,
            0.005744563415646553,
            -0.023184841498732567,
            0.04262044280767441,
            -0.027477044612169266,
            0.007519718259572983,
            0.034928854554891586,
            0.03992140293121338,
            0.030666962265968323,
            -0.009226354770362377,
            0.005533479154109955,
            0.03188896179199219,
            0.03218059241771698,
            0.0021727674175053835,
            -0.022183945402503014,
            0.053313542157411575,
            0.029861582443118095,
            0.038083307445049286,
            0.031747523695230484,
            -0.01615489087998867,
            -0.014554446563124657,
            0.0399215966463089,
            -0.024280373007059097,
            0.03089567832648754,
            0.02022598125040531,
            0.023644478991627693,
            0.053376562893390656,
            -0.010666805319488049,
            0.012404979206621647,
            0.004492221400141716,
            0.0276651531457901,
            -0.020382918417453766,
            0.04440370202064514,
            -0.00599219324067235,
            0.02395411767065525,
            -0.0375736840069294,
            0.011813363060355186,
            -0.03585168346762657,
            -0.01585947722196579,
            0.026235468685626984,
            -0.004820601083338261,
            0.041349463164806366,
            0.015607994049787521,
            0.03298491984605789,
            -0.019586293026804924,
            0.013694984838366508,
            0.013994455337524414,
            0.0051351324655115604,
            0.04088355228304863,
            0.03088592179119587,
            -0.03947683423757553,
            0.024134613573551178,
            -0.02013116143643856,
            0.01007325854152441,
            -0.028260692954063416,
            -0.013541136868298054,
            0.026645464822649956,
            -0.037447381764650345,
            0.00577832106500864,
            -0.0014774989103898406,
            0.0089910589158535,
            0.0063734762370586395,
            -0.03668598830699921,
            -0.029086505994200706,
            -0.01952456869184971,
            0.018181810155510902,
            0.041170742362737656,
            -0.027333592996001244,
            -0.008312172256410122,
            0.010628417134284973,
            -0.01734210178256035,
            0.03233920410275459,
            0.040486060082912445,
            0.002604482462629676,
            0.002104562008753419,
            0.031414829194545746,
            -0.04033453017473221,
            -0.012204083614051342,
            0.01658986136317253,
            0.010196584276854992,
            -0.03557473421096802,
            -0.016342829912900925,
            -0.0016998001374304295,
            0.007615000009536743,
            0.027136053889989853,
            0.017100274562835693,
            -0.0017252464313060045,
            -0.04209470748901367,
            0.032199978828430176,
            -0.01160065270960331,
            0.012324118986725807,
            -0.014780612662434578,
            -0.03501737490296364,
            0.0003376243112143129,
            -0.013010675087571144,
            0.03866817429661751,
            0.022753218188881874,
            -0.03692447021603584,
            0.006824558135122061,
            0.017471054568886757,
            -0.01913660578429699,
            0.030328303575515747,
            -0.038209352642297745,
            -0.027932852506637573,
            -0.03840111568570137,
            0.0364450141787529,
            0.042033229023218155,
            0.032631415873765945,
            0.02427181787788868,
            -0.02631264366209507,
            0.010738338343799114,
            0.020511804148554802,
            0.004562980495393276,
            0.043042052537202835,
            -0.010619173757731915,
            -0.025118665769696236,
            0.050111327320337296,
            0.0023001492954790592,
            0.009801668114960194,
            0.05484050512313843,
            0.05410848557949066,
            0.0524267815053463,
            -0.00739747891202569,
            0.018376581370830536,
            0.03371894732117653,
            0.0095175476744771,
            -0.027513422071933746,
            0.01579166390001774,
            0.034911204129457474,
            0.02268129028379917,
            -0.03722948953509331,
            0.0017540230182930827,
            -0.0005751253920607269,
            -0.009799818508327007,
            0.020758919417858124,
            0.041207242757081985,
            0.02846474014222622,
            -0.039960216730833054,
            -0.02673821896314621,
            -0.03745286911725998,
            0.02365952543914318,
            -0.009538721293210983,
            -0.02491726540029049,
            0.03700976073741913,
            0.03881276026368141,
            -0.03866886720061302,
            -0.0073242224752902985,
            0.019561173394322395,
            0.034430429339408875,
            0.01379737351089716,
            -0.02808201313018799,
            0.02923915907740593,
            0.03493646904826164,
            0.02850859798491001,
            0.030552269890904427,
            0.018626682460308075,
            0.033532384783029556,
            -0.030970534309744835,
            -0.006031116005033255,
            -0.008530125953257084,
            -0.030439887195825577,
            -0.02096944861114025,
            -0.02126859687268734,
            0.027973780408501625,
            -0.012650265358388424,
            0.00515319500118494,
            0.017554081976413727,
            0.02926533855497837,
            0.020439093932509422,
            -0.03493915870785713,
            -0.024000929668545723,
            0.029622841626405716,
            0.018733128905296326,
            0.017716186121106148,
            -0.018976062536239624,
            0.03562451899051666,
            -0.03973856940865517,
            -0.008994108997285366,
            -0.029434803873300552,
            -0.03340630605816841,
            -0.04077674821019173,
            0.0006659119972027838,
            0.00041693044477142394,
            0.0025175062473863363,
            0.01726582832634449,
            -0.008121307939291,
            0.02408421039581299,
            -0.030111350119113922,
            0.011635872535407543,
            0.0077950614504516125,
            0.04143309220671654,
            0.03618231788277626,
            0.003765053115785122,
            -0.010102465748786926,
            0.001024788711220026,
            -0.02174396626651287,
            -0.02093394845724106,
            0.015045789070427418,
            -0.009519357234239578,
            0.02651328593492508,
            0.02529565803706646,
            0.032374970614910126,
            -0.020326538011431694,
            0.0030745395924896,
            0.03405280038714409,
            0.03556393086910248,
            -0.005173304583877325,
            0.034498970955610275,
            0.04457809776067734,
            0.0538688525557518,
            -0.015123965218663216,
            0.0055261701345443726,
            -0.0372985377907753,
            -0.003497054800391197,
            -0.03900294005870819,
            -0.0044095772318542,
            -0.03027714602649212,
            -0.03722627833485603,
            -0.016197217628359795,
            -0.03285463899374008,
            -0.04110429063439369,
            -0.031200392171740532,
            -0.025849519297480583,
            -0.03903333470225334,
            0.0374651737511158,
            0.0011086267186328769,
            0.017055392265319824,
            -0.0207733903080225,
            0.042579635977745056,
            -0.006558522582054138,
            0.021680692210793495,
            0.010751736350357533,
            0.0022654004860669374,
            0.039803966879844666,
            -0.02619033493101597,
            -0.03862602263689041,
            0.033886443823575974,
            0.017591364681720734,
            -0.025208381935954094,
            0.027823403477668762,
            0.027715006843209267,
            0.003441079054027796,
            0.012964216060936451,
            0.00455528125166893,
            -0.002282045315951109,
            0.0020586447790265083,
            0.03916427120566368,
            0.03254789486527443,
            0.000525699695572257,
            0.014039181172847748,
            -0.04046026989817619,
            0.026518171653151512,
            0.029254671186208725,
            0.00741804763674736,
            0.026217373088002205,
            0.026366574689745903,
            0.035036660730838776,
            -0.007300073280930519,
            -0.027416342869400978,
            -0.0032669745851308107,
            0.034519340842962265,
            -0.0006786058656871319,
            -0.002784989308565855,
            -0.025548461824655533,
            0.01844320073723793,
            -0.01710612140595913,
            -0.03360413387417793,
            0.038919541984796524,
            0.022052768617868423,
            -0.006049720570445061,
            -0.0201907716691494,
            -0.016142351552844048,
            -0.014416885562241077,
            -0.023951619863510132,
            0.026544345542788506,
            0.04374540597200394,
            0.014525066129863262,
            0.01664537377655506,
            -0.011942220851778984,
            -0.01649993285536766,
            0.03796127066016197,
            0.03691740706562996,
            0.018831361085176468,
            -0.005824466701596975,
            0.05073602497577667,
            0.028641559183597565,
            -0.03715742751955986,
            -0.012028340250253677,
            0.010262269526720047,
            -0.006644675508141518,
            -0.011412534862756729,
            -0.03504970669746399,
            0.029761208221316338,
            -0.031134650111198425,
            -0.005316102411597967,
            -0.025768950581550598,
            -0.035520315170288086,
            0.04194147139787674,
            -0.012759758159518242,
            -0.0333096906542778,
            -0.0061340597458183765,
            0.03632868081331253,
            -0.00984790176153183,
            0.03769519552588463,
            -0.03319855034351349,
            -0.005592274013906717,
            0.013177262619137764,
            -0.007362639997154474,
            0.007704421877861023,
            0.022535888478159904,
            0.00019473036809358746,
            0.016236165538430214,
            0.02686336636543274,
            -0.013037863187491894,
            -0.005420341156423092,
            -0.03880668058991432,
            0.03982596471905708,
            0.02384371869266033,
            0.029445327818393707,
            -0.03728107735514641,
            -0.0012047822820022702,
            -0.021806756034493446,
            0.02791186422109604,
            0.02207779884338379,
            0.04282909259200096,
            0.041987016797065735,
            -0.01882588304579258,
            0.04204574599862099,
            -0.01662842370569706,
            0.03911605477333069,
            0.0058535244315862656,
            0.03229919448494911,
            0.043962858617305756,
            0.029088357463479042,
            0.03481792286038399,
            0.01969953626394272,
            0.0040100556798279285,
            -0.0022939189802855253,
            -0.022168297320604324,
            0.01692960225045681,
            -0.03601878508925438,
            -0.02883761189877987,
            -0.005000072065740824,
            -0.005531043745577335,
            -0.02494898810982704,
            -0.012578470632433891,
            0.03164242208003998,
            0.028200026601552963,
            -0.0017762291245162487,
            -0.008571798913180828,
            0.0077366456389427185,
            -0.039725467562675476,
            -0.00971185602247715,
            -0.017042534425854683,
            0.006872259546071291,
            -0.03793884441256523,
            0.0073180608451366425,
            -0.017042236402630806,
            0.027474118396639824,
            -0.01230268832296133,
            0.012363500893115997,
            0.039725568145513535,
            -0.032981738448143005,
            0.010683980770409107,
            0.02606680989265442,
            -0.03701627999544144,
            0.003176904981955886,
            -0.020842721685767174,
            -0.03766868636012077,
            -0.016070865094661713,
            0.021656712517142296,
            0.0464649461209774,
            0.03470422700047493,
            0.02667701058089733,
            0.015877019613981247,
            -0.012118916027247906,
            0.03305480256676674,
            0.01021096482872963,
            0.03241034597158432,
            -0.006850451231002808,
            -0.02254774421453476,
            0.03781988471746445,
            0.03708686679601669,
            0.002562070032581687,
            0.02935621701180935,
            0.016718590632081032,
            0.038139332085847855,
            0.03380006551742554,
            0.0031957486644387245,
            0.00444856146350503,
            -0.02667640894651413,
            0.01699681393802166,
            -0.0016133832978084683,
            -0.023981532081961632,
            0.007368597202003002,
            0.02825915440917015,
            -0.04088291525840759,
            0.028586210682988167,
            0.022285358980298042,
            -0.009580107405781746,
            -0.020618366077542305,
            0.02413925901055336,
            -0.005332868080586195,
            0.019556758925318718,
            -0.04100616276264191,
            0.0007841108599677682,
            0.044100359082221985,
            -0.00577374454587698,
            0.032014355063438416,
            -0.03725724667310715,
            0.018396291881799698,
            0.0014153074007481337,
            -0.0016696711536496878,
            0.010953709483146667,
            0.005131000652909279,
            0.026194553822278976,
            -0.03202548623085022,
            0.02763959765434265,
            -0.017122115939855576,
            0.054495520889759064,
            0.03027002513408661,
            0.055367834866046906,
            0.02364153228700161,
            0.028218485414981842,
            -0.015533637255430222,
            0.002241520443931222,
            0.0012009646743535995,
            -0.012366702780127525,
            0.049543965607881546,
            0.007068663835525513,
            -0.02846912480890751,
            0.04093620181083679,
            -0.01567291095852852,
            0.009258504956960678,
            0.017049873247742653,
            0.021415095776319504,
            -0.025899255648255348,
            -0.004277178086340427,
            -0.006714276969432831,
            -0.0035505543928593397,
            0.00186545227188617,
            -0.02164570614695549,
            -0.011100860312581062,
            -0.0349605567753315,
            -0.034627918154001236,
            0.008788428269326687,
            0.022792182862758636,
            0.031457796692848206,
            0.020804502069950104,
            0.018984520807862282,
            0.007227479945868254,
            0.011779203079640865,
            0.016078857704997063,
            -0.003690820187330246,
            -0.026905689388513565,
            -0.016740137711167336,
            -0.0410536453127861,
            -0.03671878203749657,
            0.019548477604985237,
            -0.00987493060529232,
            0.01095441821962595,
            -0.039577025920152664,
            0.02151246927678585,
            0.038246478885412216,
            0.03554804250597954
        ],
        [
            -0.039304301142692566,
            0.0056717293336987495,
            0.02932579070329666,
            -0.0008703768835403025,
            -0.019466260448098183,
            0.011939194984734058,
            -0.02897716499865055,
            -0.009838991798460484,
            -0.011443977244198322,
            0.03089970164000988,
            0.03027503378689289,
            0.039033886045217514,
            -0.007190522737801075,
            -0.028460580855607986,
            -0.03653603419661522,
            -0.032242558896541595,
            0.027955738827586174,
            -0.032284658402204514,
            0.03320317342877388,
            0.0038565804716199636,
            -0.03390752524137497,
            0.026651522144675255,
            -0.03785539045929909,
            0.023358674719929695,
            0.03916964679956436,
            -0.02972882241010666,
            0.01577240228652954,
            -0.010219914838671684,
            -0.029849043115973473,
            0.026476090773940086,
            0.0417904332280159,
            0.011365770362317562,
            -0.019020475447177887,
            -0.013310018926858902,
            0.04291220381855965,
            -0.038152940571308136,
            -0.036024127155542374,
            -0.026729224249720573,
            0.02133895456790924,
            0.006874934770166874,
            -0.024417253211140633,
            -0.015444885939359665,
            -0.030730480328202248,
            -0.0056601036339998245,
            -0.018606292083859444,
            -0.039954543113708496,
            -0.019719356670975685,
            -0.00361233321018517,
            0.004239263013005257,
            -0.008823063224554062,
            0.02732708491384983,
            -0.03825540095567703,
            0.02416183240711689,
            -0.028392797335982323,
            0.020191237330436707,
            -0.006020744331181049,
            -0.01993861421942711,
            0.008444597013294697,
            -0.007793187163770199,
            -0.01433122344315052,
            0.034426938742399216,
            -0.013294515199959278,
            0.029962144792079926,
            -0.0003486491332296282,
            0.00020207215857226402,
            0.030366884544491768,
            -0.035683609545230865,
            -0.03850249573588371,
            0.03249926492571831,
            0.02571015991270542,
            -0.030713338404893875,
            -0.01531640999019146,
            0.03973410278558731,
            0.01748647354543209,
            -0.023759350180625916,
            0.017533425241708755,
            0.011545456014573574,
            0.02794996276497841,
            -0.010936880484223366,
            0.003999090287834406,
            -0.03903692215681076,
            0.03428865969181061,
            -0.03701506182551384,
            0.02904205396771431,
            -0.013321391306817532,
            -0.012584543786942959,
            -0.014766949228942394,
            0.011395425535738468,
            0.0004635942168533802,
            -0.039666660130023956,
            0.015083691105246544,
            -0.031316764652729034,
            -0.017321143299341202,
            -0.020402228459715843,
            0.018922362476587296,
            -0.007866107858717442,
            -0.028334293514490128,
            -0.02051292173564434,
            -0.003874273970723152,
            -0.012845413759350777,
            0.029270615428686142,
            0.018150074407458305,
            -0.007514434400945902,
            -0.0302595142275095,
            -0.019460054114460945,
            -0.02079715207219124,
            0.02155223861336708,
            -0.03389750421047211,
            -0.021954631432890892,
            -0.028835386037826538,
            -0.00885290838778019,
            0.03715360909700394,
            -0.02330821007490158,
            -0.03841965273022652,
            0.008021299727261066,
            0.012571057304739952,
            0.0416153222322464,
            0.028657879680395126,
            -0.008435611613094807,
            -0.023009462282061577,
            0.03210771828889847,
            0.021590016782283783,
            0.012731462717056274,
            0.003771741408854723,
            0.008341268636286259,
            0.003988444339483976,
            -0.009460397064685822,
            -0.03990376368165016,
            0.008073129691183567,
            -0.01744012162089348,
            -0.014744604006409645,
            0.002809059340506792,
            0.0043299030512571335,
            0.010796009562909603,
            -0.02253325842320919,
            -0.03893651068210602,
            0.034828346222639084,
            0.03644939139485359,
            0.028449906036257744,
            0.02447352558374405,
            0.03629885986447334,
            -0.027754126116633415,
            -0.025934018194675446,
            0.040278561413288116,
            -0.01501499768346548,
            0.021703198552131653,
            0.022343825548887253,
            0.01016661711037159,
            0.023672819137573242,
            -0.020866522565484047,
            -0.042020831257104874,
            -0.025991670787334442,
            -0.04235333949327469,
            0.03976520895957947,
            -0.02010841853916645,
            -0.03060663491487503,
            -0.007080378010869026,
            0.009879549965262413,
